{
  "means": [
    23.5993595123291,
    195.517578125,
    104.59424591064453,
    2986.12451171875,
    15.544090270996094,
    76.2076644897461,
    1.555910587310791
  ],
  "stds": [
    7.9562554359436035,
    103.76657104492188,
    38.283668518066406,
    841.1339721679688,
    2.8178648948669434,
    3.6301372051239014,
    0.8071635961532593
  ],
  "fc1_weight": [
    [
      0.6312251091003418,
      -0.2113053798675537,
      -0.5777257084846497,
      -0.13531172275543213,
      1.2163447141647339,
      0.013075868599116802,
      0.25107520818710327
    ],
    [
      0.7291243672370911,
      -0.4502224326133728,
      -0.7606467604637146,
      -0.7424145340919495,
      0.8738026022911072,
      0.17748089134693146,
      0.13472798466682434
    ],
    [
      0.8677839636802673,
      -0.01161285676062107,
      -0.8174517154693604,
      0.09017709642648697,
      0.9480864405632019,
      -0.0796152874827385,
      0.34886568784713745
    ],
    [
      0.939562976360321,
      -0.21152478456497192,
      -0.5103017091751099,
      -0.15493415296077728,
      0.2536562979221344,
      -0.08881150186061859,
      -0.18923842906951904
    ],
    [
      0.24873898923397064,
      -0.6810970306396484,
      -0.34315624833106995,
      -0.11704181134700775,
      -0.39960944652557373,
      -0.5649114847183228,
      -1.4142240285873413
    ],
    [
      0.6795803904533386,
      -0.5846600532531738,
      -0.1045159325003624,
      -0.5219995975494385,
      -0.6176072955131531,
      -0.17551949620246887,
      -0.053636401891708374
    ],
    [
      0.11950515955686569,
      1.0869652032852173,
      0.7581425309181213,
      0.12058867514133453,
      -0.38385850191116333,
      -0.22453172504901886,
      0.3146308362483978
    ],
    [
      -0.8637701869010925,
      0.947422981262207,
      -0.3173942267894745,
      -0.13751035928726196,
      -0.2200145274400711,
      -0.3199622333049774,
      -1.1092174053192139
    ],
    [
      0.6977537870407104,
      -0.17612658441066742,
      0.632304310798645,
      0.08011201024055481,
      -0.16042111814022064,
      0.7832508683204651,
      0.34438183903694153
    ],
    [
      -0.1763755828142166,
      0.32296040654182434,
      -0.5821533203125,
      -0.8122743368148804,
      0.3127098083496094,
      -0.868528425693512,
      0.5908127427101135
    ],
    [
      -0.49574199318885803,
      0.24330191314220428,
      0.23901985585689545,
      0.7652862071990967,
      -0.562090277671814,
      -0.5764363408088684,
      -0.7075715661048889
    ],
    [
      0.9929689168930054,
      -0.3262961804866791,
      -0.5017220973968506,
      -0.5810837745666504,
      0.06416628509759903,
      0.2379172444343567,
      0.07121516764163971
    ],
    [
      -0.26895806193351746,
      -0.1934022307395935,
      -0.4546719193458557,
      -0.1548454761505127,
      0.543624758720398,
      -0.9729864597320557,
      -0.1831856369972229
    ],
    [
      -0.27078497409820557,
      0.7244736552238464,
      -0.1839473843574524,
      0.4641703963279724,
      0.26665210723876953,
      -0.4174187183380127,
      -0.6285772919654846
    ],
    [
      -0.45153623819351196,
      0.12385017424821854,
      -0.2617279887199402,
      -0.17083637416362762,
      -0.4327017664909363,
      -0.5624061822891235,
      -0.0001827377127483487
    ],
    [
      -0.10636057704687119,
      0.848694920539856,
      0.23589253425598145,
      0.6054525375366211,
      -0.42082133889198303,
      -0.18030783534049988,
      -0.22791387140750885
    ],
    [
      -0.08021692931652069,
      0.34159085154533386,
      0.34911346435546875,
      0.09069319069385529,
      -0.9871116876602173,
      -0.7716347575187683,
      -0.26366937160491943
    ],
    [
      -0.17369066178798676,
      0.7222111225128174,
      0.2607382535934448,
      0.35360419750213623,
      -0.3938790559768677,
      -0.11588039994239807,
      -0.10390530526638031
    ],
    [
      -0.4539496898651123,
      -0.41528889536857605,
      0.2003106027841568,
      0.1998445987701416,
      -0.09844481945037842,
      -0.6553041934967041,
      -1.071043610572815
    ],
    [
      -0.04891395568847656,
      -0.2468927800655365,
      -0.4891936480998993,
      -0.45025312900543213,
      0.10327529162168503,
      -0.6094738841056824,
      -0.36913183331489563
    ],
    [
      0.6819285154342651,
      0.08001808822154999,
      0.12652654945850372,
      -0.040967945009469986,
      0.2520979940891266,
      -0.48864492774009705,
      0.2967830002307892
    ],
    [
      0.0071713002398610115,
      -0.7108308672904968,
      -0.3439703583717346,
      -0.06818797439336777,
      -0.5594742298126221,
      0.7229158878326416,
      -1.5046210289001465
    ],
    [
      -0.4923853278160095,
      -0.06628461927175522,
      -0.10916368663311005,
      -0.37452012300491333,
      0.06498051434755325,
      -0.27599990367889404,
      -0.9163724184036255
    ],
    [
      0.06543813645839691,
      0.7608765959739685,
      0.3359403610229492,
      0.7287216186523438,
      -0.7157391905784607,
      -0.2914401590824127,
      0.15061168372631073
    ],
    [
      -0.44932106137275696,
      0.8191685676574707,
      0.188815176486969,
      0.09974528104066849,
      0.03805619850754738,
      -0.22445446252822876,
      -0.7540170550346375
    ],
    [
      -0.8153733611106873,
      -1.3710167407989502,
      0.13385480642318726,
      -1.03640878200531,
      0.5372931957244873,
      0.19834011793136597,
      0.5805305242538452
    ],
    [
      -0.15868701040744781,
      1.0281585454940796,
      0.40303391218185425,
      0.7227728366851807,
      0.07799471914768219,
      0.5496838688850403,
      -0.041817422956228256
    ],
    [
      -0.05963079258799553,
      -1.1147856712341309,
      -0.6460763812065125,
      -0.7478421330451965,
      0.767615556716919,
      -0.17120490968227386,
      0.08283691108226776
    ],
    [
      -0.686069905757904,
      -0.2507987916469574,
      -0.15510794520378113,
      -0.5492908954620361,
      0.5925527811050415,
      0.7714971303939819,
      -0.3368217647075653
    ],
    [
      -0.6127272844314575,
      0.7739850878715515,
      0.6405641436576843,
      0.32873663306236267,
      -0.18488413095474243,
      0.12898796796798706,
      0.0925547406077385
    ],
    [
      -0.3116535544395447,
      0.5865707397460938,
      0.29402709007263184,
      0.3383840322494507,
      -0.5042720437049866,
      0.4346650540828705,
      -0.008599936030805111
    ],
    [
      0.960913896560669,
      1.3109984397888184,
      -0.5131435394287109,
      0.74327552318573,
      -0.3074570894241333,
      0.3380013108253479,
      -0.6809877157211304
    ]
  ],
  "fc1_bias": [
    0.4519372880458832,
    -0.252920001745224,
    0.4406832456588745,
    0.5796480774879456,
    0.7499513030052185,
    0.2840145230293274,
    0.7670401930809021,
    0.28097695112228394,
    0.7364292740821838,
    0.019920697435736656,
    0.8422263860702515,
    -0.0835791826248169,
    0.23148179054260254,
    0.19676317274570465,
    -0.3532789349555969,
    -0.4548628330230713,
    0.26536810398101807,
    0.8701837658882141,
    0.5243445634841919,
    0.50932776927948,
    0.43598419427871704,
    0.07524935156106949,
    0.27617621421813965,
    -0.10840877145528793,
    0.34725773334503174,
    0.2871287167072296,
    0.06471538543701172,
    0.42503640055656433,
    0.4212348759174347,
    0.8249624967575073,
    -0.15651081502437592,
    0.30633458495140076
  ],
  "fc2_weight": [
    [
      0.08071409165859222,
      -0.11532755196094513,
      -0.23657135665416718,
      -0.18511994183063507,
      -0.039225827902555466,
      -0.15734881162643433,
      0.01237767469137907,
      -0.04101743921637535,
      -0.05546857416629791,
      -0.10998227447271347,
      -0.06223313510417938,
      0.03532831743359566,
      0.05339457839727402,
      -0.25261205434799194,
      -0.006449976470321417,
      -0.17068995535373688,
      -0.2416718304157257,
      -0.1151408702135086,
      0.08151281625032425,
      0.06530193239450455,
      -0.24537566304206848,
      0.0468122623860836,
      -0.13940587639808655,
      -0.028768394142389297,
      -0.22407613694667816,
      -0.16153496503829956,
      -0.25459030270576477,
      -0.18057133257389069,
      -0.07076019048690796,
      -0.1831154227256775,
      0.022448070347309113,
      -0.022936753928661346
    ],
    [
      -0.13969676196575165,
      0.11083386838436127,
      -0.1252855509519577,
      -0.1404620110988617,
      -0.1576484739780426,
      0.05077221989631653,
      -0.16483522951602936,
      0.008125007152557373,
      0.016159966588020325,
      -0.0853191688656807,
      -0.03882738947868347,
      0.15513060986995697,
      -0.16985595226287842,
      0.049176499247550964,
      -0.054055169224739075,
      0.059273600578308105,
      0.10355852544307709,
      -0.09261754900217056,
      -0.1505729854106903,
      0.037757933139801025,
      0.02750164270401001,
      -0.02269934117794037,
      -0.07379285246133804,
      -0.060263291001319885,
      -0.04866620898246765,
      -0.06574518233537674,
      0.009266316890716553,
      -0.17019137740135193,
      0.1370294839143753,
      -0.10671630501747131,
      0.015045315027236938,
      -0.12961898744106293
    ],
    [
      0.44008031487464905,
      0.4605315327644348,
      0.4566662013530731,
      0.4694995880126953,
      0.5861613750457764,
      0.3722277283668518,
      0.31484922766685486,
      -0.3465893864631653,
      0.14332818984985352,
      0.5866673588752747,
      0.23295338451862335,
      0.5201219916343689,
      0.6082248091697693,
      -0.2922137379646301,
      -0.16149760782718658,
      0.012294674292206764,
      -0.024541595950722694,
      -0.11368303745985031,
      0.45894700288772583,
      0.25058692693710327,
      0.08793861418962479,
      0.8413490056991577,
      0.13895593583583832,
      -0.2326814830303192,
      -0.14667251706123352,
      -0.07432199269533157,
      -0.12033282220363617,
      0.21820205450057983,
      0.14986178278923035,
      -0.26465827226638794,
      0.0044645462185144424,
      -0.4854597747325897
    ],
    [
      0.7596418857574463,
      -0.96036297082901,
      1.4267182350158691,
      0.9700521230697632,
      -0.6277750730514526,
      0.8270914554595947,
      0.4004184901714325,
      0.18026824295520782,
      -0.8674232363700867,
      -0.9707945585250854,
      -0.06600329279899597,
      -0.039098091423511505,
      -0.8443337678909302,
      0.5137389302253723,
      0.5568965673446655,
      0.85997474193573,
      0.2447151094675064,
      0.024630216881632805,
      -0.26036936044692993,
      -0.51139235496521,
      0.5595816373825073,
      -1.4867104291915894,
      0.0503518171608448,
      0.5973443984985352,
      0.35021793842315674,
      -2.6387078762054443,
      0.7947112917900085,
      -0.16054630279541016,
      -1.1245828866958618,
      0.123023122549057,
      0.7299770712852478,
      0.8100716471672058
    ],
    [
      0.00938477274030447,
      0.20072880387306213,
      0.19258570671081543,
      0.7408812046051025,
      0.1265053153038025,
      -1.3126718997955322,
      0.6627646088600159,
      1.5630106925964355,
      0.975579559803009,
      0.39797601103782654,
      0.49673280119895935,
      0.2685283124446869,
      -0.29512953758239746,
      0.35359880328178406,
      0.27235475182533264,
      0.10256924480199814,
      0.4725118577480316,
      0.43453556299209595,
      0.20781801640987396,
      -0.5142316818237305,
      0.15751434862613678,
      -0.5495656728744507,
      0.23901519179344177,
      0.3809153437614441,
      0.3197290301322937,
      -0.7378666996955872,
      0.06297002732753754,
      -0.8901875615119934,
      -0.06148778647184372,
      0.5566850304603577,
      0.45955517888069153,
      0.6521927118301392
    ],
    [
      -0.19822777807712555,
      0.03117869608104229,
      -0.16130530834197998,
      0.22518010437488556,
      0.6101670265197754,
      -0.033447954803705215,
      0.34429407119750977,
      0.3069925606250763,
      0.3782809376716614,
      0.31792977452278137,
      0.5767256021499634,
      0.2358531802892685,
      0.4354276657104492,
      -0.09141190350055695,
      -0.525993287563324,
      -0.8678739666938782,
      0.10047031193971634,
      0.37460529804229736,
      0.6065864562988281,
      0.38980650901794434,
      0.2574559450149536,
      0.9681276679039001,
      0.45327627658843994,
      -0.49586689472198486,
      0.14887414872646332,
      -0.37308868765830994,
      -0.24044832587242126,
      -0.3873302638530731,
      -0.14477543532848358,
      0.14515790343284607,
      -0.28384265303611755,
      -0.0288868211209774
    ],
    [
      -0.11553528904914856,
      0.042322684079408646,
      0.051282625645399094,
      -0.19255667924880981,
      -0.0868491381406784,
      -0.21782006323337555,
      -0.004592293407768011,
      -0.19024132192134857,
      -0.11178223788738251,
      0.029134081676602364,
      -0.10309717059135437,
      -0.08366777002811432,
      0.07640695571899414,
      0.07027740031480789,
      -0.2479117065668106,
      -0.14390505850315094,
      -0.11127403378486633,
      -0.054903045296669006,
      -0.2098725140094757,
      -0.06286614388227463,
      -0.13217976689338684,
      0.013535836711525917,
      -0.21246452629566193,
      -0.22176200151443481,
      0.01874573715031147,
      -0.19187836349010468,
      0.16005657613277435,
      -0.07666634768247604,
      -0.1522611528635025,
      -0.26355576515197754,
      0.10855396091938019,
      -0.09584038704633713
    ],
    [
      0.46217861771583557,
      0.5100141763687134,
      0.49193552136421204,
      0.3152649402618408,
      0.4342116117477417,
      0.4670538902282715,
      0.09137435257434845,
      -0.17400005459785461,
      0.2586870491504669,
      0.6309614181518555,
      0.3004905879497528,
      0.3243320882320404,
      0.5776961445808411,
      -0.30003413558006287,
      -0.06179378181695938,
      -0.08308735489845276,
      -0.03826335072517395,
      -0.04416009783744812,
      0.4632781445980072,
      0.535004734992981,
      0.14322170615196228,
      0.8183748722076416,
      0.17957572638988495,
      -0.15503914654254913,
      -0.2177269011735916,
      0.4927327334880829,
      -0.2589358985424042,
      0.3423539996147156,
      0.042658425867557526,
      -0.08094313740730286,
      -0.003638916416093707,
      -0.5514194965362549
    ],
    [
      -0.06462214887142181,
      -0.1126764714717865,
      -0.18083466589450836,
      -0.1545667052268982,
      -0.2617151141166687,
      -0.1929696649312973,
      0.03103644587099552,
      0.02104184217751026,
      -0.03564300015568733,
      0.02260119840502739,
      0.059384748339653015,
      -0.05084136128425598,
      0.06649033725261688,
      -0.020517870783805847,
      -0.13354529440402985,
      -0.2140636146068573,
      -0.1428351253271103,
      -0.19126996397972107,
      -0.055295515805482864,
      -0.0011903542326763272,
      -0.014581901952624321,
      -0.11101935803890228,
      -0.03378868103027344,
      -0.02808450348675251,
      0.21595801413059235,
      -0.12103275954723358,
      -0.014093412086367607,
      -0.18306437134742737,
      -0.14905646443367004,
      -0.0031900142785161734,
      -0.01696106046438217,
      -0.0730123370885849
    ],
    [
      0.7568216919898987,
      0.592471718788147,
      0.6235994696617126,
      1.1467039585113525,
      -0.3833733797073364,
      -0.9663727283477783,
      0.18767111003398895,
      1.1514681577682495,
      0.01645132340490818,
      0.01957222819328308,
      0.0764194130897522,
      -0.3323271870613098,
      -0.8727262616157532,
      0.5671030879020691,
      0.26711902022361755,
      0.36685699224472046,
      0.4381624758243561,
      0.3792491853237152,
      -0.011190692894160748,
      0.5323856472969055,
      0.21450063586235046,
      -1.0531615018844604,
      0.29070064425468445,
      0.34266501665115356,
      0.4482940137386322,
      -0.2655182480812073,
      0.3434063494205475,
      0.47590264678001404,
      1.1689428091049194,
      0.5930878520011902,
      0.3047289252281189,
      0.8080549240112305
    ],
    [
      0.3652212619781494,
      0.758974015712738,
      0.6920161247253418,
      0.5823814868927002,
      0.6632712483406067,
      -0.05766158178448677,
      0.5429475903511047,
      0.04584762081503868,
      0.11839556694030762,
      0.3809765875339508,
      0.422588586807251,
      0.6723570823669434,
      0.45861026644706726,
      -0.22058019042015076,
      -0.7685235738754272,
      -0.5387489795684814,
      -0.2615674138069153,
      0.2853497266769409,
      0.43388471007347107,
      0.3762766122817993,
      0.6118377447128296,
      0.9652407765388489,
      0.35152193903923035,
      -0.4957394301891327,
      -0.18540021777153015,
      -0.5111474990844727,
      -0.3726503252983093,
      -0.10658063739538193,
      -0.014438633807003498,
      0.031008239835500717,
      -0.30061519145965576,
      -0.19723790884017944
    ],
    [
      -0.032357897609472275,
      -0.2803395986557007,
      -0.031214507296681404,
      0.21451911330223083,
      0.5130332112312317,
      0.09174364060163498,
      0.2079087793827057,
      0.8435498476028442,
      0.30361273884773254,
      0.20276981592178345,
      0.40229570865631104,
      0.1470036804676056,
      -0.04852587357163429,
      0.4460126459598541,
      0.002495481865480542,
      0.08781985193490982,
      0.39087820053100586,
      0.40082597732543945,
      0.27281516790390015,
      0.17350773513317108,
      0.23934994637966156,
      0.30606433749198914,
      0.34108856320381165,
      0.22150902450084686,
      0.2548203468322754,
      -0.3579668700695038,
      0.37039369344711304,
      -0.19406673312187195,
      -0.13384707272052765,
      0.21557585895061493,
      0.28828561305999756,
      0.02384079433977604
    ],
    [
      -0.23136551678180695,
      -0.42027929425239563,
      0.03782172128558159,
      -0.08635929226875305,
      0.25601765513420105,
      -0.8785169720649719,
      0.5599843263626099,
      1.2933791875839233,
      0.7187209725379944,
      0.29477474093437195,
      0.18927127122879028,
      -0.4956131875514984,
      0.038544654846191406,
      0.3495934307575226,
      0.33292704820632935,
      -0.10157036781311035,
      0.6285050511360168,
      0.5865848064422607,
      0.3699268698692322,
      -0.15364323556423187,
      0.15878428518772125,
      -0.17741580307483673,
      0.5241135954856873,
      0.4156828820705414,
      0.6613401770591736,
      -0.5547580122947693,
      0.46292150020599365,
      -0.7972059845924377,
      -0.040422797203063965,
      0.43759146332740784,
      0.5056867599487305,
      0.3716115653514862
    ],
    [
      0.03004826232790947,
      -0.011197233572602272,
      -0.04986672103404999,
      -0.1190812736749649,
      -0.6518949866294861,
      -0.3227875232696533,
      0.38877755403518677,
      0.18974249064922333,
      -0.6247538924217224,
      -0.5205588936805725,
      0.012818953953683376,
      -0.010170510038733482,
      -0.3697526454925537,
      0.24451075494289398,
      0.06463252007961273,
      0.5845429301261902,
      0.32145968079566956,
      0.1668189913034439,
      -0.047678861767053604,
      -0.38710904121398926,
      0.0486653707921505,
      -0.3967255651950836,
      -0.2920534610748291,
      0.5357276201248169,
      0.22001737356185913,
      -0.4566640257835388,
      0.22978103160858154,
      -0.2648831903934479,
      -0.4961840510368347,
      0.24995426833629608,
      0.30946511030197144,
      0.1752227544784546
    ],
    [
      -0.001253743190318346,
      -0.04604209586977959,
      -0.0817561224102974,
      -0.09009191393852234,
      -0.13735102117061615,
      -0.000733161112293601,
      -0.18329665064811707,
      -0.07104966044425964,
      -0.06389668583869934,
      -0.06438405066728592,
      -0.0800289511680603,
      -0.1366197168827057,
      -0.20615871250629425,
      -0.11519405245780945,
      -0.020953521132469177,
      0.04137642681598663,
      -0.014128834009170532,
      -0.041338831186294556,
      -0.23526638746261597,
      0.003068919526413083,
      -0.1675117164850235,
      -0.05471445247530937,
      -0.0012255513574928045,
      -0.03495557978749275,
      -0.20482835173606873,
      -0.21392515301704407,
      -0.05517435818910599,
      0.09151249378919601,
      -0.08890994638204575,
      -0.06976710259914398,
      -0.020557735115289688,
      0.09036702662706375
    ],
    [
      0.13229945302009583,
      0.08359609544277191,
      0.2632674276828766,
      1.0584982633590698,
      -0.03528250381350517,
      -0.05962447449564934,
      0.26800739765167236,
      1.1188775300979614,
      -0.20066776871681213,
      -0.40099260210990906,
      0.19342423975467682,
      0.5231012105941772,
      -0.29377681016921997,
      0.6034546494483948,
      0.3207602798938751,
      0.4996212422847748,
      0.2838197648525238,
      0.11439336091279984,
      0.05204732343554497,
      -0.05363241210579872,
      0.11922390013933182,
      -0.2862645387649536,
      0.3001342713832855,
      0.37782734632492065,
      0.4634004533290863,
      -0.9897517561912537,
      0.4181898832321167,
      -0.4648653268814087,
      -0.6118543148040771,
      0.4096207916736603,
      0.2640610635280609,
      0.6139881610870361
    ]
  ],
  "fc2_bias": [
    -0.21867351233959198,
    -0.15027165412902832,
    0.31352442502975464,
    -0.11989830434322357,
    0.4658490717411041,
    0.5247208476066589,
    0.058232732117176056,
    0.3513661026954651,
    0.03116118721663952,
    0.6777122020721436,
    0.3066657483577728,
    0.2772563099861145,
    0.35915565490722656,
    -0.14540433883666992,
    -0.11304008215665817,
    -0.016925513744354248
  ],
  "fc3_weight": [
    [
      -0.07320505380630493,
      -0.021729320287704468,
      0.4217190742492676,
      -0.7036169171333313,
      -0.2610143721103668,
      -0.38579806685447693,
      -0.08415421098470688,
      0.7884063124656677,
      -0.006166968960314989,
      -1.5880237817764282,
      -0.4902181327342987,
      -0.589059054851532,
      -0.39636844396591187,
      -0.3422466218471527,
      0.019638963043689728,
      -0.7488147020339966
    ],
    [
      -0.1421012133359909,
      -0.2066633701324463,
      0.44849082827568054,
      -1.6145793199539185,
      -0.7690042853355408,
      0.3750077188014984,
      0.06364816427230835,
      0.43784791231155396,
      -0.1211593821644783,
      -0.5137527585029602,
      0.40704983472824097,
      0.20238225162029266,
      -0.698031485080719,
      -0.2582683563232422,
      -0.1518269032239914,
      -1.0899213552474976
    ],
    [
      -0.13127565383911133,
      0.10661497712135315,
      -0.16464346647262573,
      0.9738245010375977,
      -0.40619027614593506,
      -0.298791766166687,
      0.007678441237658262,
      0.0059702470898628235,
      0.020211612805724144,
      0.297695130109787,
      -0.37730297446250916,
      -0.2433180958032608,
      -0.19447793066501617,
      -0.12440574914216995,
      0.1157902404665947,
      -0.2472272664308548
    ],
    [
      -0.2604036033153534,
      0.06069004535675049,
      -0.24771630764007568,
      -0.9933692812919617,
      0.6919582486152649,
      0.4691886007785797,
      -0.13899734616279602,
      -0.361325740814209,
      0.16650380194187164,
      0.24243223667144775,
      0.06772367656230927,
      0.2850557267665863,
      0.6317347288131714,
      -0.8246301412582397,
      0.14560328423976898,
      -0.06834214925765991
    ],
    [
      0.12422914803028107,
      -0.09984692931175232,
      -0.6293585300445557,
      0.8027920722961426,
      0.22576488554477692,
      -0.7229365706443787,
      0.008235986344516277,
      -0.7415345907211304,
      -0.0959271714091301,
      0.3869401514530182,
      -0.6284540295600891,
      0.3381980061531067,
      0.2727172374725342,
      0.42299535870552063,
      -0.08061143755912781,
      0.3564243018627167
    ]
  ],
  "fc3_bias": [
    0.20358477532863617,
    0.21094632148742676,
    0.10037782788276672,
    -0.14570781588554382,
    -0.19837874174118042
  ],
  "classes": [
    3,
    4,
    5,
    6,
    8
  ]
}