{
    "means": [
        5.482428073883057,
        195.517578125,
        104.59424591064453,
        2986.12451171875,
        15.544090270996094,
        76.2076644897461,
        1.555910587310791
    ],
    "stds": [
        1.7004470825195312,
        103.76657104492188,
        38.283668518066406,
        841.1339721679688,
        2.8178648948669434,
        3.6301372051239014,
        0.8071635961532593
    ],
    "fc1_weight": [
        [
            0.5317376255989075,
            0.46501559019088745,
            -0.05483260750770569,
            -0.13928653299808502,
            -0.3953004777431488,
            0.0614890456199646,
            -0.7743209600448608
        ],
        [
            0.2667396664619446,
            -0.6138811707496643,
            -0.5636905431747437,
            -0.15928791463375092,
            -0.1595471352338791,
            -0.7268902063369751,
            0.242332324385643
        ],
        [
            -0.4183155596256256,
            0.13414452970027924,
            -0.36963966488838196,
            -0.08382383733987808,
            0.1040378287434578,
            -0.02854345552623272,
            -0.650181770324707
        ],
        [
            -0.5607579946517944,
            -0.5974460244178772,
            -0.40318793058395386,
            -0.22885079681873322,
            -0.23133347928524017,
            0.5637292265892029,
            0.5492669343948364
        ],
        [
            0.12821583449840546,
            -0.16674615442752838,
            -0.46027830243110657,
            -0.5260188579559326,
            -0.3611506223678589,
            0.15564054250717163,
            -0.24558895826339722
        ],
        [
            0.2256118804216385,
            -0.18580558896064758,
            0.4699006676673889,
            0.02839577943086624,
            0.34186768531799316,
            0.6177261471748352,
            0.6150717735290527
        ],
        [
            0.25719666481018066,
            0.36594170331954956,
            -0.21763405203819275,
            -0.08067477494478226,
            0.7711685299873352,
            0.8052298426628113,
            -0.6792541146278381
        ],
        [
            -0.4491419494152069,
            -0.2513701021671295,
            -0.5212474465370178,
            -0.4837644696235657,
            -0.15671958029270172,
            -0.5134654641151428,
            0.4211215078830719
        ],
        [
            0.1154475063085556,
            -0.14096245169639587,
            -0.5501976013183594,
            -0.35915979743003845,
            -0.2531421184539795,
            0.5452959537506104,
            0.4713074266910553
        ],
        [
            -0.2622155547142029,
            -0.022394124418497086,
            -0.40185555815696716,
            -0.04815655201673508,
            0.3932313919067383,
            0.043801143765449524,
            -0.283082515001297
        ],
        [
            -0.21125707030296326,
            -0.3836970925331116,
            0.3709712326526642,
            -0.15330059826374054,
            -0.4004856050014496,
            -0.7677575349807739,
            -0.8129902482032776
        ],
        [
            0.47166886925697327,
            -0.4624669551849365,
            0.0710449069738388,
            0.2007296234369278,
            0.0852728858590126,
            0.4179005026817322,
            0.05510028079152107
        ],
        [
            0.09747828543186188,
            -0.3907390832901001,
            -0.44566458463668823,
            0.25426003336906433,
            0.48053380846977234,
            0.3623136579990387,
            -0.4647403061389923
        ],
        [
            0.16906704008579254,
            0.06646975129842758,
            -0.18459582328796387,
            0.05840977281332016,
            -0.5437496304512024,
            0.5032028555870056,
            -0.3442230820655823
        ],
        [
            -0.23628179728984833,
            -0.34147509932518005,
            -0.4532632529735565,
            -0.42115187644958496,
            -0.49383875727653503,
            0.42275112867355347,
            0.5559275150299072
        ],
        [
            0.0849037617444992,
            -0.6561999320983887,
            -0.21084612607955933,
            -0.4840265214443207,
            0.24345465004444122,
            0.5397610068321228,
            0.5551329255104065
        ]
    ],
    "fc1_bias": [
        0.5812821984291077,
        0.9988095164299011,
        0.47412535548210144,
        0.712196409702301,
        0.5954262018203735,
        0.3551292419433594,
        0.77203768491745,
        1.0339535474777222,
        0.23934444785118103,
        0.9983909130096436,
        0.4972342550754547,
        1.0898500680923462,
        0.3008861839771271,
        1.1428253650665283,
        0.3246955871582031,
        0.5760230422019958
    ],
    "fc2_weight": [
        [
            0.09445349872112274,
            0.7840902209281921,
            -0.04134432598948479,
            -0.2675139605998993,
            0.17092205584049225,
            0.23242948949337006,
            0.45903947949409485,
            0.014441356062889099,
            -0.08822420239448547,
            -0.11354497075080872,
            0.26333358883857727,
            0.5315960645675659,
            0.2113197296857834,
            0.5111395716667175,
            0.2102709263563156,
            0.18066351115703583
        ],
        [
            -0.28105804324150085,
            0.08270192891359329,
            0.12939010560512543,
            -0.17128817737102509,
            0.04013138636946678,
            -0.04188205674290657,
            -0.13605831563472748,
            -0.03255780413746834,
            -0.24678102135658264,
            -0.050832200795412064,
            -0.16956108808517456,
            0.10016468167304993,
            -0.2788596451282501,
            -0.011071579530835152,
            0.10088850557804108,
            -0.20848965644836426
        ],
        [
            0.463474303483963,
            0.5171382427215576,
            0.31730756163597107,
            0.4681152105331421,
            0.5126098394393921,
            0.31122705340385437,
            0.6536182165145874,
            0.3515481948852539,
            0.172545924782753,
            0.6132678985595703,
            0.298721581697464,
            0.31387609243392944,
            0.4966508746147156,
            0.45932021737098694,
            0.5420732498168945,
            0.5822222828865051
        ],
        [
            0.14973099529743195,
            0.7081676721572876,
            0.25857505202293396,
            0.41899484395980835,
            0.41437631845474243,
            0.2920091152191162,
            0.5119743347167969,
            0.6389520764350891,
            0.2923415005207062,
            0.2850223481655121,
            0.32494843006134033,
            0.6582103371620178,
            0.4027665853500366,
            0.7397943139076233,
            0.5717307329177856,
            0.15404236316680908
        ],
        [
            0.1099649965763092,
            -0.05943667143583298,
            -0.13841187953948975,
            0.10157883912324905,
            -0.16118301451206207,
            -0.09168598800897598,
            -0.23763692378997803,
            -0.10636536031961441,
            -0.11573854088783264,
            0.006266449112445116,
            -0.13813337683677673,
            -0.11867121607065201,
            0.04471923038363457,
            -0.2416103035211563,
            -0.156042218208313,
            -0.07569705694913864
        ],
        [
            0.5679910182952881,
            0.5646104216575623,
            0.3920748233795166,
            0.23895926773548126,
            0.16903308033943176,
            0.525285005569458,
            0.4124971628189087,
            0.2838348150253296,
            0.4061250388622284,
            0.30331534147262573,
            0.6369335651397705,
            0.5739391446113586,
            0.12758222222328186,
            0.7225447297096252,
            0.1743420660495758,
            0.42713600397109985
        ],
        [
            0.41574281454086304,
            0.9447619318962097,
            0.3010099530220032,
            0.1468120664358139,
            0.464217871427536,
            0.6503576636314392,
            0.6115283966064453,
            0.21324540674686432,
            0.1236630380153656,
            0.17804458737373352,
            0.29939255118370056,
            0.47406163811683655,
            0.3226071000099182,
            0.6701095104217529,
            0.5335157513618469,
            0.3357589840888977
        ],
        [
            0.21769918501377106,
            0.6575586199760437,
            0.208496555685997,
            0.5281082391738892,
            0.2830548882484436,
            0.2778621017932892,
            0.3537019193172455,
            0.556407630443573,
            0.41282951831817627,
            0.5902969241142273,
            0.3961828052997589,
            0.563472330570221,
            0.5091016888618469,
            0.7273404002189636,
            0.45477738976478577,
            0.4564896523952484
        ]
    ],
    "fc2_bias": [
        0.42174655199050903,
        -0.18003243207931519,
        0.4440469443798065,
        0.6525775194168091,
        -0.21743783354759216,
        0.6925080418586731,
        0.5493612885475159,
        0.44166794419288635
    ],
    "fc3_weight": [
        [
            0.3260323703289032,
            -0.2284921407699585,
            0.6290188431739807,
            0.7051601409912109,
            -0.20239214599132538,
            0.6160341501235962,
            0.6678881645202637,
            0.46317726373672485
        ]
    ],
    "fc3_bias": [
        0.16511738300323486
    ]
}